booster[0]:
0:[f0<0.539138] yes=1,no=2,missing=1
	1:[f1<0.497672] yes=3,no=4,missing=3
		3:[f0<0.501473] yes=7,no=8,missing=7
			7:leaf=-0.14665
			8:leaf=0.141574
		4:[f0<0.501469] yes=9,no=10,missing=9
			9:[f1<0.501204] yes=11,no=12,missing=11
				11:leaf=-0.0818937
				12:leaf=0.148698
			10:[f1<0.519504] yes=13,no=14,missing=13
				13:leaf=0.105817
				14:leaf=-0.141202
	2:[f1<0.500868] yes=5,no=6,missing=5
		5:leaf=0.146311
		6:leaf=-0.151016
booster[1]:
0:[f0<0.539138] yes=1,no=2,missing=1
	1:[f1<0.497672] yes=3,no=4,missing=3
		3:[f0<0.501473] yes=7,no=8,missing=7
			7:[f1<0.493325] yes=11,no=12,missing=11
				11:leaf=-0.103289
				12:leaf=-0.0359703
			8:leaf=0.100949
		4:[f0<0.501469] yes=9,no=10,missing=9
			9:[f1<0.501204] yes=13,no=14,missing=13
				13:leaf=-0.0696097
				14:leaf=0.104253
			10:[f1<0.519504] yes=15,no=16,missing=15
				15:leaf=0.0899445
				16:leaf=-0.101195
	2:[f1<0.500868] yes=5,no=6,missing=5
		5:leaf=0.102614
		6:leaf=-0.105897
booster[2]:
0:[f0<0.539138] yes=1,no=2,missing=1
	1:[f1<0.497672] yes=3,no=4,missing=3
		3:[f0<0.501473] yes=7,no=8,missing=7
			7:[f1<0.0124905] yes=15,no=16,missing=15
				15:leaf=-0.0356407
				16:leaf=-0.0730196
			8:[f1<0.465917] yes=17,no=18,missing=17
				17:leaf=0.073352
				18:leaf=0.0209056
		4:[f0<0.501469] yes=9,no=10,missing=9
			9:[f1<0.501204] yes=19,no=20,missing=19
				19:leaf=-0.0591682
				20:leaf=0.0730927
			10:[f1<0.519504] yes=21,no=22,missing=21
				21:leaf=0.0764529
				22:leaf=-0.072523
	2:[f1<0.500868] yes=5,no=6,missing=5
		5:[f1<0.488733] yes=11,no=12,missing=11
			11:leaf=0.0726746
			12:[f0<0.878727] yes=23,no=24,missing=23
				23:leaf=0.0504415
				24:leaf=0.0087567
		6:[f1<0.988641] yes=13,no=14,missing=13
			13:leaf=-0.0747314
			14:leaf=-0.0430233
booster[3]:
0:[f0<0.578609] yes=1,no=2,missing=1
	1:[f1<0.497672] yes=3,no=4,missing=3
		3:[f0<0.501473] yes=7,no=8,missing=7
			7:[f1<0.442495] yes=15,no=16,missing=15
				15:leaf=-0.052511
				16:leaf=-0.0338573
			8:[f1<0.344202] yes=17,no=18,missing=17
				17:leaf=0.0480827
				18:leaf=0.0658202
		4:[f0<0.501469] yes=9,no=10,missing=9
			9:[f1<0.501204] yes=19,no=20,missing=19
				19:leaf=-0.050293
				20:leaf=0.0512458
			10:[f1<0.502093] yes=21,no=22,missing=21
				21:leaf=0.0649849
				22:leaf=-0.049328
	2:[f1<0.500868] yes=5,no=6,missing=5
		5:[f0<0.669791] yes=11,no=12,missing=11
			11:[f0<0.658802] yes=23,no=24,missing=23
				23:leaf=0.042564
				24:leaf=0.0231748
			12:[f1<0.488733] yes=25,no=26,missing=25
				25:leaf=0.0528923
				26:leaf=0.0165815
		6:[f1<0.566675] yes=13,no=14,missing=13
			13:[f0<0.97057] yes=27,no=28,missing=27
				27:leaf=-0.0421914
				28:leaf=-0.00790625
			14:[f0<0.681503] yes=29,no=30,missing=29
				29:leaf=-0.044904
				30:leaf=-0.0573559
booster[4]:
0:[f1<0.0137553] yes=1,no=2,missing=1
	1:[f0<0.413764] yes=3,no=4,missing=3
		3:[f1<0.00657113] yes=7,no=8,missing=7
			7:[f0<0.293666] yes=13,no=14,missing=13
				13:leaf=-0.0304396
				14:leaf=-0.00804411
			8:[f0<0.21388] yes=15,no=16,missing=15
				15:leaf=-0.00584642
				16:leaf=0.00477067
		4:leaf=0.0402224
	2:[f0<0.578609] yes=5,no=6,missing=5
		5:[f1<0.497672] yes=9,no=10,missing=9
			9:[f0<0.501473] yes=17,no=18,missing=17
				17:leaf=-0.0361456
				18:leaf=0.0391907
			10:[f0<0.501469] yes=19,no=20,missing=19
				19:leaf=0.0354824
				20:leaf=-0.0315016
		6:[f1<0.500868] yes=11,no=12,missing=11
			11:[f0<0.591529] yes=21,no=22,missing=21
				21:leaf=0.00824828
				22:leaf=0.0350605
			12:[f1<0.761317] yes=23,no=24,missing=23
				23:leaf=-0.0330332
				24:leaf=-0.0415634
booster[5]:
0:[f0<0.864312] yes=1,no=2,missing=1
	1:[f1<0.429066] yes=3,no=4,missing=3
		3:[f0<0.501874] yes=7,no=8,missing=7
			7:[f0<0.0563314] yes=15,no=16,missing=15
				15:leaf=-0.0150113
				16:leaf=-0.028457
			8:[f0<0.801898] yes=17,no=18,missing=17
				17:leaf=0.0231538
				18:leaf=0.0357972
		4:[f0<0.501469] yes=9,no=10,missing=9
			9:[f1<0.501204] yes=19,no=20,missing=19
				19:leaf=-0.0178539
				20:leaf=0.0253234
			10:[f1<0.498698] yes=21,no=22,missing=21
				21:leaf=0.0351785
				22:leaf=-0.0255986
	2:[f1<0.491695] yes=5,no=6,missing=5
		5:[f0<0.888759] yes=11,no=12,missing=11
			11:[f1<0.389468] yes=23,no=24,missing=23
				23:leaf=-0.00553233
				24:leaf=0.020772
			12:[f0<0.982648] yes=25,no=26,missing=25
				25:leaf=0.0294177
				26:leaf=0.0128556
		6:[f1<0.966095] yes=13,no=14,missing=13
			13:[f0<0.923113] yes=27,no=28,missing=27
				27:leaf=-0.0369824
				28:leaf=-0.0209398
			14:[f0<0.887555] yes=29,no=30,missing=29
				29:leaf=0.00360044
				30:leaf=-0.00221157
booster[6]:
0:[f0<0.239647] yes=1,no=2,missing=1
	1:[f1<0.501204] yes=3,no=4,missing=3
		3:[f0<0.176438] yes=7,no=8,missing=7
			7:[f0<0.174644] yes=15,no=16,missing=15
				15:leaf=-0.0176246
				16:leaf=0.0259418
			8:[f1<0.107967] yes=17,no=18,missing=17
				17:leaf=-0.0067326
				18:leaf=-0.0345808
		4:[f0<0.203407] yes=9,no=10,missing=9
			9:[f0<0.0118414] yes=19,no=20,missing=19
				19:leaf=-0.00104619
				20:leaf=0.0179913
			10:[f1<0.633706] yes=21,no=22,missing=21
				21:leaf=0.0306862
				22:leaf=-0.00308461
	2:[f1<0.500868] yes=5,no=6,missing=5
		5:[f0<0.477225] yes=11,no=12,missing=11
			11:[f0<0.253212] yes=23,no=24,missing=23
				23:leaf=0.00739103
				24:leaf=-0.0188072
			12:[f1<0.18466] yes=25,no=26,missing=25
				25:leaf=0.0131293
				26:leaf=0.0201593
		6:[f0<0.497388] yes=13,no=14,missing=13
			13:[f1<0.906299] yes=27,no=28,missing=27
				27:leaf=0.0163203
				28:leaf=0.029184
			14:[f0<0.687457] yes=29,no=30,missing=29
				29:leaf=-0.0151758
				30:leaf=-0.0202387
booster[7]:
0:[f1<0.013011] yes=1,no=2,missing=1
	1:[f0<0.284091] yes=3,no=4,missing=3
		3:[f1<0.0104357] yes=7,no=8,missing=7
			7:[f0<0.162811] yes=15,no=16,missing=15
				15:leaf=-0.00321168
				16:leaf=-0.018784
			8:[f0<0.129032] yes=17,no=18,missing=17
				17:leaf=0.0129671
				18:leaf=-9.75061e-05
		4:[f0<0.799145] yes=9,no=10,missing=9
			9:[f0<0.658386] yes=19,no=20,missing=19
				19:leaf=0.0166566
				20:leaf=-0.00348757
			10:leaf=0.0273455
	2:[f0<0.123095] yes=5,no=6,missing=5
		5:[f1<0.489582] yes=11,no=12,missing=11
			11:[f0<0.0563314] yes=21,no=22,missing=21
				21:leaf=-0.00632347
				22:leaf=-0.0265009
			12:[f0<0.110089] yes=23,no=24,missing=23
				23:leaf=0.0141174
				24:leaf=-0.0058305
		6:[f1<0.558797] yes=13,no=14,missing=13
			13:[f0<0.452069] yes=25,no=26,missing=25
				25:leaf=-0.00913036
				26:leaf=0.00955794
			14:[f0<0.484372] yes=27,no=28,missing=27
				27:leaf=0.0125201
				28:leaf=-0.0133508
booster[8]:
0:[f0<0.0146563] yes=1,no=2,missing=1
	1:[f0<0.00299159] yes=3,no=4,missing=3
		3:[f1<0.546617] yes=7,no=8,missing=7
			7:leaf=-0.00808284
			8:[f0<0.00163618] yes=15,no=16,missing=15
				15:leaf=-0.000437379
				16:leaf=0.00350548
		4:[f0<0.00655818] yes=9,no=10,missing=9
			9:leaf=-0.0279795
			10:[f0<0.0142602] yes=17,no=18,missing=17
				17:leaf=-0.00266039
				18:leaf=-0.0198854
	2:[f0<0.0183105] yes=5,no=6,missing=5
		5:[f1<0.839791] yes=11,no=12,missing=11
			11:[f1<0.256228] yes=19,no=20,missing=19
				19:leaf=0.0062374
				20:leaf=0.0384443
			12:[f0<0.0152825] yes=21,no=22,missing=21
				21:leaf=0.00440779
				22:leaf=-0.00888009
		6:[f0<0.991672] yes=13,no=14,missing=13
			13:[f1<0.013011] yes=23,no=24,missing=23
				23:leaf=0.00990568
				24:leaf=0.000179097
			14:[f0<0.998202] yes=25,no=26,missing=25
				25:leaf=-0.0235933
				26:leaf=0.0162272
booster[9]:
0:[f0<0.0146563] yes=1,no=2,missing=1
	1:[f1<0.546617] yes=3,no=4,missing=3
		3:[f0<0.00655818] yes=7,no=8,missing=7
			7:[f0<0.00341516] yes=15,no=16,missing=15
				15:leaf=-0.00646627
				16:leaf=-0.026318
			8:[f0<0.0142602] yes=17,no=18,missing=17
				17:leaf=-0.00174807
				18:leaf=-0.0169026
		4:[f0<0.00299159] yes=9,no=10,missing=9
			9:[f0<0.00163618] yes=19,no=20,missing=19
				19:leaf=-0.000371772
				20:leaf=0.00297966
			10:[f0<0.00602598] yes=21,no=22,missing=21
				21:leaf=-0.00725747
				22:leaf=-0.00167282
	2:[f0<0.0196235] yes=5,no=6,missing=5
		5:[f1<0.839791] yes=11,no=12,missing=11
			11:[f1<0.49607] yes=23,no=24,missing=23
				23:leaf=0.00441112
				24:leaf=0.032478
			12:[f0<0.0152825] yes=25,no=26,missing=25
				25:leaf=0.00374662
				26:leaf=-0.00754808
		6:[f0<0.123095] yes=13,no=14,missing=13
			13:[f1<0.669378] yes=27,no=28,missing=27
				27:leaf=-0.0103312
				28:leaf=0.0101415
			14:[f0<0.130754] yes=29,no=30,missing=29
				29:leaf=0.0192847
				30:leaf=0.000351192
booster[10]:
0:[f0<0.239647] yes=1,no=2,missing=1
	1:[f1<0.501204] yes=3,no=4,missing=3
		3:[f0<0.198581] yes=7,no=8,missing=7
			7:[f1<0.496153] yes=15,no=16,missing=15
				15:leaf=-0.00592762
				16:leaf=-0.0389162
			8:[f1<0.263484] yes=17,no=18,missing=17
				17:leaf=-0.0117486
				18:leaf=-0.0338846
		4:[f1<0.874047] yes=9,no=10,missing=9
			9:[f1<0.829445] yes=19,no=20,missing=19
				19:leaf=0.00677148
				20:leaf=0.0191884
			10:[f1<0.88261] yes=21,no=22,missing=21
				21:leaf=-0.0201378
				22:leaf=0.00337456
	2:[f1<0.586694] yes=5,no=6,missing=5
		5:[f0<0.477893] yes=11,no=12,missing=11
			11:[f1<0.493325] yes=23,no=24,missing=23
				23:leaf=-0.0108048
				24:leaf=0.0165727
			12:[f1<0.500868] yes=25,no=26,missing=25
				25:leaf=0.00938964
				26:leaf=-0.00781674
		6:[f0<0.501469] yes=13,no=14,missing=13
			13:[f1<0.906299] yes=27,no=28,missing=27
				27:leaf=0.00606738
				28:leaf=0.0168305
			14:[f0<0.503257] yes=29,no=30,missing=29
				29:leaf=-0.0376574
				30:leaf=-0.00955196
booster[11]:
0:[f0<0.991672] yes=1,no=2,missing=1
	1:[f0<0.989818] yes=3,no=4,missing=3
		3:[f1<0.00367422] yes=7,no=8,missing=7
			7:[f0<0.423937] yes=11,no=12,missing=11
				11:leaf=-0.00216417
				12:leaf=0.021015
			8:[f1<0.18492] yes=13,no=14,missing=13
				13:leaf=-0.00217509
				14:leaf=0.000474576
		4:leaf=0.0237779
	2:[f0<0.998202] yes=5,no=6,missing=5
		5:[f0<0.994483] yes=9,no=10,missing=9
			9:[f0<0.993687] yes=15,no=16,missing=15
				15:leaf=-0.0181247
				16:leaf=0.00638343
			10:leaf=-0.0203231
		6:leaf=0.012332
booster[12]:
0:[f1<0.254267] yes=1,no=2,missing=1
	1:[f1<0.234065] yes=3,no=4,missing=3
		3:[f0<0.434883] yes=7,no=8,missing=7
			7:[f1<0.130722] yes=15,no=16,missing=15
				15:leaf=-0.00400259
				16:leaf=-0.0107409
			8:[f1<0.228053] yes=17,no=18,missing=17
				17:leaf=0.00652206
				18:leaf=-0.0149792
		4:[f1<0.245546] yes=9,no=10,missing=9
			9:[f1<0.24042] yes=19,no=20,missing=19
				19:leaf=0.0230018
				20:leaf=0.00252788
			10:leaf=0.0312126
	2:[f1<0.303926] yes=5,no=6,missing=5
		5:[f0<0.945506] yes=11,no=12,missing=11
			11:[f0<0.208275] yes=21,no=22,missing=21
				21:leaf=-0.00263088
				22:leaf=-0.0181406
			12:leaf=0.0331227
		6:[f0<0.687457] yes=13,no=14,missing=13
			13:[f0<0.67843] yes=23,no=24,missing=23
				23:leaf=0.00195567
				24:leaf=0.028351
			14:[f1<0.474165] yes=25,no=26,missing=25
				25:leaf=0.00744864
				26:leaf=-0.0085626
booster[13]:
0:[f0<0.0134519] yes=1,no=2,missing=1
	1:[f0<0.00299159] yes=3,no=4,missing=3
		3:[f0<0.00195163] yes=7,no=8,missing=7
			7:[f0<0.000717479] yes=15,no=16,missing=15
				15:leaf=-0.00139803
				16:leaf=-0.00511202
			8:leaf=0.00115245
		4:[f0<0.00655818] yes=9,no=10,missing=9
			9:leaf=-0.0195965
			10:[f0<0.00812904] yes=17,no=18,missing=17
				17:leaf=0.00231843
				18:leaf=-0.00858835
	2:[f0<0.0569469] yes=5,no=6,missing=5
		5:[f1<0.564689] yes=11,no=12,missing=11
			11:[f1<0.520567] yes=19,no=20,missing=19
				19:leaf=0.00360995
				20:leaf=-0.0230932
			12:[f1<0.782793] yes=21,no=22,missing=21
				21:leaf=0.0210684
				22:leaf=0.000245039
		6:[f0<0.0823319] yes=13,no=14,missing=13
			13:[f1<0.979311] yes=23,no=24,missing=23
				23:leaf=-0.0146923
				24:leaf=0.0146977
			14:[f1<0.586694] yes=25,no=26,missing=25
				25:leaf=0.00107062
				26:leaf=-0.000886074
booster[14]:
0:[f1<0.987971] yes=1,no=2,missing=1
	1:[f1<0.980811] yes=3,no=4,missing=3
		3:[f1<0.970458] yes=7,no=8,missing=7
			7:[f1<0.965461] yes=15,no=16,missing=15
				15:leaf=6.84885e-05
				16:leaf=-0.0172367
			8:[f1<0.974813] yes=17,no=18,missing=17
				17:leaf=0.0180258
				18:leaf=-0.00311688
		4:[f0<0.625039] yes=9,no=10,missing=9
			9:[f1<0.986009] yes=19,no=20,missing=19
				19:leaf=-0.0109229
				20:leaf=0.0143586
			10:leaf=-0.0341958
	2:[f1<0.991646] yes=5,no=6,missing=5
		5:[f0<0.693981] yes=11,no=12,missing=11
			11:leaf=0.0172265
			12:[f0<0.844279] yes=21,no=22,missing=21
				21:leaf=-0.00232965
				22:leaf=0.0068508
		6:[f1<0.994727] yes=13,no=14,missing=13
			13:leaf=-0.0100913
			14:[f0<0.630806] yes=23,no=24,missing=23
				23:leaf=0.00992405
				24:leaf=-0.000322934
booster[15]:
0:[f0<0.949506] yes=1,no=2,missing=1
	1:[f0<0.938601] yes=3,no=4,missing=3
		3:[f0<0.93296] yes=7,no=8,missing=7
			7:[f0<0.92441] yes=15,no=16,missing=15
				15:leaf=-8.19489e-05
				16:leaf=0.0209992
			8:[f1<0.264204] yes=17,no=18,missing=17
				17:leaf=0.0107072
				18:leaf=-0.0149296
		4:[f0<0.946715] yes=9,no=10,missing=9
			9:[f1<0.613742] yes=19,no=20,missing=19
				19:leaf=0.0312814
				20:leaf=0.0100798
			10:[f0<0.948568] yes=21,no=22,missing=21
				21:leaf=-0.00543845
				22:leaf=0.0154398
	2:[f1<0.785718] yes=5,no=6,missing=5
		5:[f0<0.955782] yes=11,no=12,missing=11
			11:leaf=-0.0258356
			12:[f0<0.982648] yes=23,no=24,missing=23
				23:leaf=0.00714127
				24:leaf=-0.0031551
		6:[f0<0.951564] yes=13,no=14,missing=13
			13:leaf=0.00613165
			14:leaf=-0.0266738
booster[16]:
0:[f0<0.0146563] yes=1,no=2,missing=1
	1:[f0<0.00299159] yes=3,no=4,missing=3
		3:[f1<0.546617] yes=7,no=8,missing=7
			7:[f0<0.000573654] yes=15,no=16,missing=15
				15:leaf=-0.000698584
				16:leaf=-0.0043432
			8:[f0<0.00163618] yes=17,no=18,missing=17
				17:leaf=-0.000497201
				18:leaf=0.000981599
		4:[f0<0.00655818] yes=9,no=10,missing=9
			9:[f0<0.00445513] yes=19,no=20,missing=19
				19:leaf=-0.00460761
				20:leaf=-0.0189042
			10:[f0<0.0142602] yes=21,no=22,missing=21
				21:leaf=-0.00137802
				22:leaf=-0.0124776
	2:[f0<0.0569469] yes=5,no=6,missing=5
		5:[f1<0.564689] yes=11,no=12,missing=11
			11:[f1<0.307846] yes=23,no=24,missing=23
				23:leaf=0.00574511
				24:leaf=-0.0087802
			12:[f0<0.0283748] yes=25,no=26,missing=25
				25:leaf=-0.00196161
				26:leaf=0.018305
		6:[f0<0.0823319] yes=13,no=14,missing=13
			13:[f1<0.0576721] yes=27,no=28,missing=27
				27:leaf=-0.0355593
				28:leaf=-0.00590626
			14:[f0<0.0885934] yes=29,no=30,missing=29
				29:leaf=0.01055
				30:leaf=2.7816e-05
booster[17]:
0:[f1<0.0239033] yes=1,no=2,missing=1
	1:[f1<0.0170099] yes=3,no=4,missing=3
		3:[f1<0.0149005] yes=7,no=8,missing=7
			7:[f0<0.799145] yes=15,no=16,missing=15
				15:leaf=0.00171973
				16:leaf=0.0131233
			8:leaf=-0.0250004
		4:[f0<0.432188] yes=9,no=10,missing=9
			9:leaf=0.009007
			10:leaf=0.0262137
	2:[f1<0.0629741] yes=5,no=6,missing=5
		5:[f0<0.355507] yes=11,no=12,missing=11
			11:[f1<0.0333304] yes=17,no=18,missing=17
				17:leaf=-0.00384981
				18:leaf=-0.0267204
			12:[f0<0.962567] yes=19,no=20,missing=19
				19:leaf=0.00282319
				20:leaf=-0.0262887
		6:[f1<0.0666479] yes=13,no=14,missing=13
			13:[f0<0.718487] yes=21,no=22,missing=21
				21:leaf=0.00454743
				22:leaf=0.0349853
			14:[f0<0.619819] yes=23,no=24,missing=23
				23:leaf=0.000847939
				24:leaf=-0.00147258
booster[18]:
0:[f1<0.18492] yes=1,no=2,missing=1
	1:[f1<0.181404] yes=3,no=4,missing=3
		3:[f0<0.852433] yes=7,no=8,missing=7
			7:[f1<0.170747] yes=15,no=16,missing=15
				15:leaf=-0.00100776
				16:leaf=-0.0112943
			8:[f0<0.947074] yes=17,no=18,missing=17
				17:leaf=0.0166217
				18:leaf=0.000841248
		4:[f0<0.333428] yes=9,no=10,missing=9
			9:leaf=-0.0442729
			10:[f0<0.733122] yes=19,no=20,missing=19
				19:leaf=0.00437881
				20:leaf=-0.023927
	2:[f1<0.254267] yes=5,no=6,missing=5
		5:[f0<0.685475] yes=11,no=12,missing=11
			11:[f1<0.232718] yes=21,no=22,missing=21
				21:leaf=-0.00339286
				22:leaf=0.011673
			12:[f0<0.74939] yes=23,no=24,missing=23
				23:leaf=0.0373157
				24:leaf=0.00466063
		6:[f1<0.303926] yes=13,no=14,missing=13
			13:[f0<0.945506] yes=25,no=26,missing=25
				25:leaf=-0.010573
				26:leaf=0.0271289
			14:[f0<0.519663] yes=27,no=28,missing=27
				27:leaf=0.00238979
				28:leaf=-0.0020704
booster[19]:
0:[f0<0.248201] yes=1,no=2,missing=1
	1:[f1<0.501204] yes=3,no=4,missing=3
		3:[f0<0.176438] yes=7,no=8,missing=7
			7:[f0<0.174644] yes=15,no=16,missing=15
				15:leaf=-0.0031545
				16:leaf=0.0223084
			8:[f1<0.261797] yes=17,no=18,missing=17
				17:leaf=-0.00566793
				18:leaf=-0.0181987
		4:[f1<0.622872] yes=9,no=10,missing=9
			9:[f0<0.142505] yes=19,no=20,missing=19
				19:leaf=-0.00166959
				20:leaf=0.022047
			10:[f0<0.203407] yes=21,no=22,missing=21
				21:leaf=0.00252985
				22:leaf=-0.00846179
	2:[f0<0.252604] yes=5,no=6,missing=5
		5:[f1<0.196349] yes=11,no=12,missing=11
			11:leaf=0.0101534
			12:leaf=0.0375265
		6:[f1<0.566675] yes=13,no=14,missing=13
			13:[f0<0.452069] yes=23,no=24,missing=23
				23:leaf=-0.00527111
				24:leaf=0.00356692
			14:[f0<0.481732] yes=25,no=26,missing=25
				25:leaf=0.00501991
				26:leaf=-0.0047047
